Language model created by QuickLM on Wed Dec  4 02:22:28 EST 2019
Copyright (c) 1996-2010 Carnegie Mellon University and Alexander I. Rudnicky

The model is in standard ARPA format, designed by Doug Paul while he was at MITRE.

The code that was used to produce this language model is available in Open Source.
Please visit http://www.speech.cs.cmu.edu/tools/ for more information

The (fixed) discount mass is 0.5. The backoffs are computed using the ratio method.
This model based on a corpus of 24 sentences and 26 words

\data\
ngram 1=26
ngram 2=48
ngram 3=24

\1-grams:
-0.7782 </s> -0.3010
-0.7782 <s> -0.2218
-2.1584 一 -0.2218
-2.1584 七 -0.2218
-2.1584 三 -0.2218
-2.1584 九 -0.2218
-2.1584 二 -0.2218
-2.1584 五 -0.2218
-2.1584 低压 -0.2218
-2.1584 体温 -0.2218
-2.1584 体重 -0.2218
-2.1584 八 -0.2218
-2.1584 六 -0.2218
-2.1584 十 -0.2218
-2.1584 千 -0.2218
-2.1584 四 -0.2218
-2.1584 宫高 -0.2218
-2.1584 收缩压 -0.2218
-2.1584 百 -0.2218
-2.1584 胎心 -0.2218
-2.1584 胎心率 -0.2218
-2.1584 脉搏 -0.2218
-2.1584 腹围 -0.2218
-2.1584 舒张压 -0.2218
-2.1584 血压 -0.2218
-2.1584 高压 -0.2218

\2-grams:
-1.6812 <s> 一 0.0000
-1.6812 <s> 七 0.0000
-1.6812 <s> 三 0.0000
-1.6812 <s> 九 0.0000
-1.6812 <s> 二 0.0000
-1.6812 <s> 五 0.0000
-1.6812 <s> 低压 0.0000
-1.6812 <s> 体温 0.0000
-1.6812 <s> 体重 0.0000
-1.6812 <s> 八 0.0000
-1.6812 <s> 六 0.0000
-1.6812 <s> 十 0.0000
-1.6812 <s> 千 0.0000
-1.6812 <s> 四 0.0000
-1.6812 <s> 宫高 0.0000
-1.6812 <s> 收缩压 0.0000
-1.6812 <s> 百 0.0000
-1.6812 <s> 胎心 0.0000
-1.6812 <s> 胎心率 0.0000
-1.6812 <s> 脉搏 0.0000
-1.6812 <s> 腹围 0.0000
-1.6812 <s> 舒张压 0.0000
-1.6812 <s> 血压 0.0000
-1.6812 <s> 高压 0.0000
-0.3010 一 </s> -0.3010
-0.3010 七 </s> -0.3010
-0.3010 三 </s> -0.3010
-0.3010 九 </s> -0.3010
-0.3010 二 </s> -0.3010
-0.3010 五 </s> -0.3010
-0.3010 低压 </s> -0.3010
-0.3010 体温 </s> -0.3010
-0.3010 体重 </s> -0.3010
-0.3010 八 </s> -0.3010
-0.3010 六 </s> -0.3010
-0.3010 十 </s> -0.3010
-0.3010 千 </s> -0.3010
-0.3010 四 </s> -0.3010
-0.3010 宫高 </s> -0.3010
-0.3010 收缩压 </s> -0.3010
-0.3010 百 </s> -0.3010
-0.3010 胎心 </s> -0.3010
-0.3010 胎心率 </s> -0.3010
-0.3010 脉搏 </s> -0.3010
-0.3010 腹围 </s> -0.3010
-0.3010 舒张压 </s> -0.3010
-0.3010 血压 </s> -0.3010
-0.3010 高压 </s> -0.3010

\3-grams:
-0.3010 <s> 一 </s>
-0.3010 <s> 七 </s>
-0.3010 <s> 三 </s>
-0.3010 <s> 九 </s>
-0.3010 <s> 二 </s>
-0.3010 <s> 五 </s>
-0.3010 <s> 低压 </s>
-0.3010 <s> 体温 </s>
-0.3010 <s> 体重 </s>
-0.3010 <s> 八 </s>
-0.3010 <s> 六 </s>
-0.3010 <s> 十 </s>
-0.3010 <s> 千 </s>
-0.3010 <s> 四 </s>
-0.3010 <s> 宫高 </s>
-0.3010 <s> 收缩压 </s>
-0.3010 <s> 百 </s>
-0.3010 <s> 胎心 </s>
-0.3010 <s> 胎心率 </s>
-0.3010 <s> 脉搏 </s>
-0.3010 <s> 腹围 </s>
-0.3010 <s> 舒张压 </s>
-0.3010 <s> 血压 </s>
-0.3010 <s> 高压 </s>

\end\
